digraph Tree {
0 [label="EDAD <= 1.5000\nentropy = 0.284749498191\nsamples = 50350", shape="box"] ;
1 [label="SEXO <= 0.5000\nentropy = 0.315857305581\nsamples = 8265", shape="box"] ;
0 -> 1 ;
2 [label="entropy = 0.3189\nsamples = 4200\nvalue = [ 3957.   243.]", shape="box"] ;
1 -> 2 ;
3 [label="entropy = 0.3127\nsamples = 4065\nvalue = [ 3836.   229.]", shape="box"] ;
1 -> 3 ;
4 [label="SEXO <= 0.5000\nentropy = 0.278445519299\nsamples = 42085", shape="box"] ;
0 -> 4 ;
5 [label="EDAD <= 4.5000\nentropy = 0.288785627288\nsamples = 23871", shape="box"] ;
4 -> 5 ;
6 [label="EDAD <= 2.5000\nentropy = 0.292705258511\nsamples = 13497", shape="box"] ;
5 -> 6 ;
7 [label="entropy = 0.2804\nsamples = 3355\nvalue = [ 3192.   163.]", shape="box"] ;
6 -> 7 ;
8 [label="EDAD <= 3.5000\nentropy = 0.296736048596\nsamples = 10142", shape="box"] ;
6 -> 8 ;
9 [label="entropy = 0.3046\nsamples = 4434\nvalue = [ 4193.   241.]", shape="box"] ;
8 -> 9 ;
10 [label="entropy = 0.2905\nsamples = 5708\nvalue = [ 5417.   291.]", shape="box"] ;
8 -> 10 ;
11 [label="EDAD <= 6.5000\nentropy = 0.283647092301\nsamples = 10374", shape="box"] ;
5 -> 11 ;
12 [label="EDAD <= 5.5000\nentropy = 0.277948144469\nsamples = 7621", shape="box"] ;
11 -> 12 ;
13 [label="entropy = 0.2795\nsamples = 4382\nvalue = [ 4170.   212.]", shape="box"] ;
12 -> 13 ;
14 [label="entropy = 0.2759\nsamples = 3239\nvalue = [ 3085.   154.]", shape="box"] ;
12 -> 14 ;
15 [label="entropy = 0.2991\nsamples = 2753\nvalue = [ 2607.   146.]", shape="box"] ;
11 -> 15 ;
16 [label="EDAD <= 2.5000\nentropy = 0.264612563678\nsamples = 18214", shape="box"] ;
4 -> 16 ;
17 [label="entropy = 0.2919\nsamples = 3158\nvalue = [ 2996.   162.]", shape="box"] ;
16 -> 17 ;
18 [label="EDAD <= 6.5000\nentropy = 0.258726511259\nsamples = 15056", shape="box"] ;
16 -> 18 ;
19 [label="EDAD <= 3.5000\nentropy = 0.262303617042\nsamples = 12938", shape="box"] ;
18 -> 19 ;
20 [label="entropy = 0.2426\nsamples = 3220\nvalue = [ 3091.   129.]", shape="box"] ;
19 -> 20 ;
21 [label="EDAD <= 5.5000\nentropy = 0.268692960388\nsamples = 9718", shape="box"] ;
19 -> 21 ;
22 [label="EDAD <= 4.5000\nentropy = 0.273783220271\nsamples = 7267", shape="box"] ;
21 -> 22 ;
23 [label="entropy = 0.2789\nsamples = 3896\nvalue = [ 3708.   188.]", shape="box"] ;
22 -> 23 ;
24 [label="entropy = 0.2678\nsamples = 3371\nvalue = [ 3217.   154.]", shape="box"] ;
22 -> 24 ;
25 [label="entropy = 0.2533\nsamples = 2451\nvalue = [ 2347.   104.]", shape="box"] ;
21 -> 25 ;
26 [label="entropy = 0.2364\nsamples = 2118\nvalue = [ 2036.    82.]", shape="box"] ;
18 -> 26 ;
}